digraph Tree {
0 [label="cmd_02 <= 0.5000\nentropy = 0.810013723599\nsamples = 4659271", shape="box"] ;
1 [label="cmd_17 <= 0.5000\nentropy = 0.768338187145\nsamples = 4335722", shape="box"] ;
0 -> 1 ;
2 [label="stay_length_0 <= 0.5000\nentropy = 0.750899215853\nsamples = 4131630", shape="box"] ;
1 -> 2 ;
3 [label="entropy = 0.6867\nsamples = 2669909\nvalue = [ 2181188.   488721.]", shape="box"] ;
2 -> 3 ;
4 [label="entropy = 0.8462\nsamples = 1461721\nvalue = [ 1062214.   399507.]", shape="box"] ;
2 -> 4 ;
5 [label="complexity_ghm_T <= 0.5000\nentropy = 0.980333767341\nsamples = 204092", shape="box"] ;
1 -> 5 ;
6 [label="entropy = 0.9154\nsamples = 108858\nvalue = [ 72879.  35979.]", shape="box"] ;
5 -> 6 ;
7 [label="entropy = 0.9991\nsamples = 95234\nvalue = [ 45978.  49256.]", shape="box"] ;
5 -> 7 ;
8 [label="complexity_ghm_J <= 0.5000\nentropy = 0.981473204495\nsamples = 323549", shape="box"] ;
0 -> 8 ;
9 [label="stay_length_1 <= 0.5000\nentropy = 0.981518676262\nsamples = 69377", shape="box"] ;
8 -> 9 ;
10 [label="entropy = 0.9023\nsamples = 32557\nvalue = [ 22201.  10356.]", shape="box"] ;
9 -> 10 ;
11 [label="entropy = 0.9997\nsamples = 36820\nvalue = [ 18028.  18792.]", shape="box"] ;
9 -> 11 ;
12 [label="next_emergency <= 0.5000\nentropy = 0.955473075713\nsamples = 254172", shape="box"] ;
8 -> 12 ;
13 [label="entropy = 0.9533\nsamples = 252668\nvalue = [  94360.  158308.]", shape="box"] ;
12 -> 13 ;
14 [label="entropy = 0.5454\nsamples = 1504\nvalue = [ 1315.   189.]", shape="box"] ;
12 -> 14 ;
}